{
  "layers": [
    {
      "neuron_size": 5,
      "weights": [
        {
          "data": [
            -0.6503524759547937,
            -0.40755558635932,
            -0.6789557350535638,
            -0.5255801738322846,
            0.3989624058065294
          ],
          "gradient": [
            -0.00030390527701986417,
            -0.0010228383223985327,
            -0.001127261472148221,
            -0.00043998397230082684,
            -0.003477908695538356
          ]
        },
        {
          "data": [
            -0.032096385544034836,
            -0.4552623159440851,
            0.13795081212122143,
            -0.5549221642586962,
            0.634357219865087
          ],
          "gradient": [
            -0.001056023544516679,
            -0.015335631806265262,
            -0.00487517595213915,
            -0.007059733958396085,
            -0.01733893139840499
          ]
        },
        {
          "data": [
            0.42225108502676234,
            -0.06769378478650842,
            -0.7010012650836689,
            0.4601173841818644,
            -0.3569595683277306
          ],
          "gradient": [
            1.2434325176181016e-05,
            0.00014573422436136703,
            3.48448566618769e-05,
            5.67819924945898e-05,
            8.232396740305403e-05
          ]
        },
        {
          "data": [
            -0.3494944837683734,
            -0.6556003668784259,
            0.34206684048287994,
            -0.30404527507674933,
            -0.19917641171837838
          ],
          "gradient": [
            -0.0001824032961308139,
            -0.0007303642232196889,
            -0.002518920449260741,
            -0.000276267670691503,
            -0.0026094543223270463
          ]
        },
        {
          "data": [
            -0.17125291630215847,
            0.6577438605150849,
            0.2752534245618967,
            0.1178058406706774,
            0.076101400886538
          ],
          "gradient": [
            -5.310183789997964e-05,
            -8.125526563321346e-05,
            -0.00014663320031894315,
            -0.00011021243799904907,
            -0.0007552191728713492
          ]
        }
      ],
      "gradients": [
        {
          "data": [
            -5.740173959465874
          ],
          "gradient": [
            -5.122747054113723e-06
          ]
        },
        {
          "data": [
            1.2045143727807854
          ],
          "gradient": [
            -0.000571599169374221
          ]
        },
        {
          "data": [
            -7.191219736214951
          ],
          "gradient": [
            1.8485808675729997e-07
          ]
        },
        {
          "data": [
            -17.021152632505444
          ],
          "gradient": [
            -2.2519332152165957e-11
          ]
        },
        {
          "data": [
            14.889245817819823
          ],
          "gradient": [
            -2.4461328544800727e-10
          ]
        }
      ],
      "weight_initializer": {
        "type": "GlorotUniformInitializer",
        "config": {
          "seed": 1716218954
        }
      },
      "activation_function": "Sigmoid"
    },
    {
      "neuron_size": 7,
      "weights": [
        {
          "data": [
            0.11484860847408157,
            0.530470253601793,
            0.2527361894310234,
            -0.37982063005717803,
            0.03181753786783605,
            0.7627546435484269
          ],
          "gradient": [
            -0.03595986440586282,
            -0.003391656428388682,
            -0.02281994285797052,
            -0.002670903347068864,
            -0.0016279378500646435,
            -0.03566618927567456
          ]
        },
        {
          "data": [
            -0.060135128618420665,
            -0.6709709188326012,
            -0.6295157051066156,
            -0.3244677178444365,
            -0.06548785401365528,
            0.0714416727145247
          ],
          "gradient": [
            0.0015676225261484033,
            0.00014866093295031529,
            0.0010112640382133637,
            0.00011075447687805239,
            7.227751396658058e-05,
            0.0015547382417143998
          ]
        },
        {
          "data": [
            -0.35350704989342124,
            0.38091970987062745,
            -0.34798513692281335,
            0.022541477947138306,
            -0.3324775942295931,
            0.44128504430574844
          ],
          "gradient": [
            -0.00796745541378163,
            -0.0009630469366187142,
            -0.0053424445284784355,
            -0.0005202364046419789,
            -0.00036751413668412815,
            -0.007885241836610914
          ]
        },
        {
          "data": [
            0.651292032709365,
            0.21986360086904222,
            -0.247613672033535,
            0.49233976992647166,
            0.39564000536748534,
            -0.1654118717690337
          ],
          "gradient": [
            -0.02598593551187416,
            -0.0031009340804044228,
            -0.017786153222210794,
            -0.0015913821382173548,
            -0.001235463237466914,
            -0.025720658448968352
          ]
        },
        {
          "data": [
            -0.3455043768608272,
            -0.25154892392138045,
            -0.560797746158349,
            0.002368477779805326,
            0.03864950641819039,
            0.6538935118764501
          ],
          "gradient": [
            -0.010259278568852788,
            -0.0011804342150455631,
            -0.006898870974379146,
            -0.0006631039052401405,
            -0.00048443305650414835,
            -0.010158168983259329
          ]
        },
        {
          "data": [
            0.46303097389137365,
            -0.4151214686993355,
            -0.27970729404494876,
            -0.611302351000595,
            0.6223700331435741,
            0.2494059036685256
          ],
          "gradient": [
            0.006470592130683384,
            0.0008185994421262896,
            0.004396773814624884,
            0.0004160600113373193,
            0.00029615158387220176,
            0.006400816343647736
          ]
        },
        {
          "data": [
            0.333514062029853,
            -0.13146385745789918,
            0.18270596049240587,
            0.15005285781697822,
            0.13419795117757866,
            -0.41363088522622876
          ],
          "gradient": [
            -0.006031614845131091,
            -0.00072382911577011,
            -0.004058445776954515,
            -0.000390986091772347,
            -0.0002825448779817014,
            -0.005969790560638157
          ]
        }
      ],
      "gradients": [
        {
          "data": [
            1.0734534650109209
          ],
          "gradient": [
            -0.004104441837882341
          ]
        },
        {
          "data": [
            -0.4753907701436069
          ],
          "gradient": [
            0.0001809119119058801
          ]
        },
        {
          "data": [
            -0.17869909593400374
          ],
          "gradient": [
            -0.000907068641478159
          ]
        },
        {
          "data": [
            0.29645933670672375
          ],
          "gradient": [
            -0.0030119493789929523
          ]
        },
        {
          "data": [
            -0.12385203160697345
          ],
          "gradient": [
            -0.0011865591549145606
          ]
        },
        {
          "data": [
            0.49546039419011545
          ],
          "gradient": [
            0.0007306192641487839
          ]
        },
        {
          "data": [
            0.06013566399407411
          ],
          "gradient": [
            -0.0006867241060558975
          ]
        }
      ],
      "weight_initializer": {
        "type": "GlorotUniformInitializer",
        "config": {
          "seed": 154851340
        }
      },
      "activation_function": "Sigmoid"
    },
    {
      "neuron_size": 1,
      "weights": [
        {
          "data": [
            -1.4049152607207902,
            0.04973309354735826,
            -0.23766835991749025,
            -0.8002468245625418,
            -0.3096153440888528,
            0.2018107721181909,
            -0.178666679603288,
            -0.5269908401951947
          ],
          "gradient": [
            0.13576571904493678,
            0.10101289360772288,
            0.05120951990364806,
            0.06385392667748319,
            0.0811205484018663,
            0.06439287562005681,
            0.08318667687770506,
            0.06948515106853047
          ]
        }
      ],
      "gradients": [
        {
          "data": [
            -2.288788240990937
          ],
          "gradient": [
            0.015388322981543745
          ]
        }
      ],
      "weight_initializer": {
        "type": "GlorotUniformInitializer",
        "config": {
          "seed": 2145579917
        }
      },
      "activation_function": "Sigmoid"
    }
  ],
  "output": {
    "data": [
      0.09205578052962633
    ],
    "gradient": [
      0.18411156105925267
    ]
  },
  "optimizer": {
    "type": "StochasticGradientDescent",
    "learning_rate": 0.01
  },
  "loss_function": "MeanSquaredError",
  "train_history": [
    [
      0.39348421529000366,
      0.33623024078689223
    ],
    [
      0.31839614648536674,
      0.2676971362247761
    ],
    [
      0.2536639891972513,
      0.2121095405256253
    ],
    [
      0.20172926473816655,
      0.16925706413721073
    ],
    [
      0.16188072365686917,
      0.13698653082808918
    ],
    [
      0.1318756260159532,
      0.1127654871826523
    ],
    [
      0.10929170632855527,
      0.09443006389301725
    ],
    [
      0.09211938393598815,
      0.08034961673417068
    ],
    [
      0.07886262774332185,
      0.06935731530613365
    ],
    [
      0.06845580219613835,
      0.06063218258459184
    ],
    [
      0.06014958559158355,
      0.05359628870233695
    ],
    [
      0.05341562700585317,
      0.0478390766106497
    ],
    [
      0.04787748389208835,
      0.0430650380135253
    ],
    [
      0.04326320328663384,
      0.03905832221745653
    ],
    [
      0.039373331921018044,
      0.03565887864810724
    ],
    [
      0.03605935350216303,
      0.03274628022556748
    ],
    [
      0.033209047032555554,
      0.030228639854050623
    ],
    [
      0.030736431146297642,
      0.02803492024961504
    ],
    [
      0.02857476660928654,
      0.026109525949654187
    ],
    [
      0.026671619433023402,
      0.024408448243651786
    ],
    [
      0.024985329631205516,
      0.022896480300747615
    ],
    [
      0.02348245144261496,
      0.021545179462140237
    ],
    [
      0.02213587386556596,
      0.020331357919814937
    ],
    [
      0.020923423820307045,
      0.01923595176093727
    ],
    [
      0.01982681601112974,
      0.01824316422327114
    ],
    [
      0.018830854845459048,
      0.017339809967507006
    ],
    [
      0.017922821704689316,
      0.01651480832225524
    ],
    [
      0.017091999996528894,
      0.01575878807639652
    ],
    [
      0.01632930368079698,
      0.01506377661455609
    ],
    [
      0.01562698425858519,
      0.014422953417137053
    ],
    [
      0.014978397805836924,
      0.013830453108963442
    ],
    [
      0.014377818354459669,
      0.013281206966845215
    ],
    [
      0.013820287341484744,
      0.012770814512127977
    ],
    [
      0.013301491343967728,
      0.012295438811959408
    ],
    [
      0.01281766215891947,
      0.011851720595471897
    ],
    [
      0.012365494657616922,
      0.011436707400493178
    ],
    [
      0.011942078871427623,
      0.011047794803296491
    ],
    [
      0.011544843543437667,
      0.010682677420056698
    ],
    [
      0.011171508972272929,
      0.010339307855764056
    ],
    [
      0.010820047428869259,
      0.010015862151885113
    ],
    [
      0.010488649778019004,
      0.009710710575514344
    ],
    [
      0.010175697209561269,
      0.009422392820387692
    ],
    [
      0.009879737197765687,
      0.009149596868980866
    ],
    [
      0.009599462975688302,
      0.008891140906254502
    ],
    [
      0.009333695944478915,
      0.008645957787918886
    ],
    [
      0.009081370543661926,
      0.00841308165580676
    ],
    [
      0.008841521193275888,
      0.008191636364971682
    ],
    [
      0.008613270987010908,
      0.007980825445238848
    ],
    [
      0.008395821870641912,
      0.007779923367033256
    ],
    [
      0.0081884460848372,
      0.007588267919653238
    ]
  ]
}