{
  "layers": [
    {
      "neuron_size": 5,
      "weights": [
        {
          "data": [
            -0.4144421275527796,
            0.5954164698227635,
            -0.4385258821372369,
            -0.31730521462780353,
            0.6747121031611504
          ],
          "gradient": [
            -0.0034933865707236327,
            -0.005028979933454033,
            -0.016630670170475096,
            -0.03240054739294123,
            -0.01923326190322626
          ]
        },
        {
          "data": [
            0.6047252581224493,
            -0.7248574119489773,
            0.2593802673959204,
            0.021781520667681388,
            -0.5273144804548763
          ],
          "gradient": [
            0.0017426305693723793,
            0.006339916275608085,
            0.016656859313050585,
            0.008244946096331546,
            0.0051637202192437925
          ]
        },
        {
          "data": [
            0.6483748160278597,
            -0.46387176424557097,
            0.08676337326646054,
            -0.1453850465044806,
            0.24323089111293394
          ],
          "gradient": [
            0.004278595877923705,
            0.022584870940664796,
            0.0950197814683151,
            0.06057021575889044,
            0.05152064012610423
          ]
        },
        {
          "data": [
            -0.0585188979930272,
            -0.03057597011972103,
            -0.6684861210408282,
            -0.6790598089917274,
            0.5232987497500148
          ],
          "gradient": [
            -6.01592437239009e-05,
            -0.0005325776044348941,
            0.0021328501566547577,
            0.0002476673428215874,
            0.000388101861234739
          ]
        },
        {
          "data": [
            0.5718726502670137,
            -0.5491580711475222,
            0.6310331327541944,
            -0.586990969113585,
            -0.27666209115904844
          ],
          "gradient": [
            0.0038222650947762208,
            0.03203893655108734,
            0.05992576826609752,
            0.016276403261708275,
            0.057073746075082074
          ]
        }
      ],
      "gradients": [
        {
          "data": [
            20.397102136563362
          ],
          "gradient": [
            2.3906200333960858e-11
          ]
        },
        {
          "data": [
            -20.837696703006003
          ],
          "gradient": [
            -1.0051590707900257e-11
          ]
        },
        {
          "data": [
            -3.995722075231872
          ],
          "gradient": [
            -0.00023594899728205757
          ]
        },
        {
          "data": [
            5.9563924362093825
          ],
          "gradient": [
            -3.566816475455403e-05
          ]
        },
        {
          "data": [
            -13.544451000040068
          ],
          "gradient": [
            -4.138374686248898e-08
          ]
        }
      ],
      "weight_initializer": {
        "type": "GlorotUniformInitializer",
        "config": {
          "seed": 135456960
        }
      },
      "activation_function": "Sigmoid"
    },
    {
      "neuron_size": 7,
      "weights": [
        {
          "data": [
            0.11709612004943155,
            0.4972099193475601,
            0.22459572623481983,
            0.3063920844188383,
            -0.10708943532653839,
            -0.31145139796097937
          ],
          "gradient": [
            -0.008144380284006034,
            0.007075179736153073,
            -0.0047493972587515695,
            -0.015033321673770837,
            0.033714888011285804,
            -0.012815231395466248
          ]
        },
        {
          "data": [
            0.5970312411099329,
            0.4949800967821596,
            -0.47164941529018173,
            -0.5896112763927038,
            0.6478780816557274,
            -0.0710992103647376
          ],
          "gradient": [
            -0.007642093253671027,
            -0.0022300227687049342,
            -0.0016766908820165275,
            -0.006713978519268705,
            0.007541564648826825,
            -0.004561273566647502
          ]
        },
        {
          "data": [
            0.35326945324281583,
            0.09363489107449974,
            -0.05916608676906282,
            -0.5209347182988603,
            -0.02355352312193359,
            -0.10156611296723801
          ],
          "gradient": [
            0.005916165784095605,
            -0.002806789320147652,
            0.002684161812536408,
            0.009442006807966618,
            -0.01983115662762995,
            0.007350955488580425
          ]
        },
        {
          "data": [
            0.6117433000289068,
            -0.19981276282616448,
            -0.157718798596345,
            0.19222136020742187,
            -0.27943356571859407,
            -0.36480154988165936
          ],
          "gradient": [
            0.0059718092223841526,
            -0.0059120085139627,
            0.0037104073073154827,
            0.012134298309000558,
            -0.028617216886688036,
            0.010185089881759498
          ]
        },
        {
          "data": [
            0.3225829271197942,
            -0.3194003671828455,
            -0.041874920219181905,
            -0.46958016685058496,
            -0.2914061129439397,
            0.4076510840525122
          ],
          "gradient": [
            -0.032633518996949426,
            0.015673919117276378,
            -0.014721853957095826,
            -0.054653568267429245,
            0.1121482177070483,
            -0.04023017723721874
          ]
        },
        {
          "data": [
            -0.09694727461124573,
            -0.427169958691896,
            0.6118594196137404,
            -0.049352124508721014,
            0.5099332349321661,
            -0.4669454423480917
          ],
          "gradient": [
            0.0022233644739823068,
            -0.0022539711992596613,
            0.0013738891647340637,
            0.004457113905587882,
            -0.010639503969735628,
            0.003715442484172839
          ]
        },
        {
          "data": [
            -0.2377832614421049,
            0.2863866519065417,
            0.5010417441205492,
            -0.2981838600626497,
            0.6443780719199055,
            -0.15524985912904574
          ],
          "gradient": [
            0.019063891710789215,
            -0.00478378615449402,
            0.00732801925072066,
            0.026861114895205426,
            -0.05208489266382468,
            0.020084597163518726
          ]
        }
      ],
      "gradients": [
        {
          "data": [
            0.5130267899540931
          ],
          "gradient": [
            0.017599888274800864
          ]
        },
        {
          "data": [
            1.7275666331498818
          ],
          "gradient": [
            0.003443432303145327
          ]
        },
        {
          "data": [
            0.41400243177742485
          ],
          "gradient": [
            -0.009736314959012528
          ]
        },
        {
          "data": [
            0.13669003208090186
          ],
          "gradient": [
            -0.014439983262738746
          ]
        },
        {
          "data": [
            -0.29595196950406866
          ],
          "gradient": [
            0.05833133051935392
          ]
        },
        {
          "data": [
            -0.016392931610607866
          ],
          "gradient": [
            -0.005279984518369483
          ]
        },
        {
          "data": [
            0.6859313460804047
          ],
          "gradient": [
            -0.025572080758302338
          ]
        }
      ],
      "weight_initializer": {
        "type": "GlorotUniformInitializer",
        "config": {
          "seed": 436067810
        }
      },
      "activation_function": "Sigmoid"
    },
    {
      "neuron_size": 1,
      "weights": [
        {
          "data": [
            0.2585318224140403,
            0.0924743956187505,
            -0.13983259196154474,
            -0.19967772105090018,
            0.8205649631204711,
            -0.07267712133238304,
            -0.39501620401805976,
            0.25011338591727267
          ],
          "gradient": [
            -0.151590056034207,
            -0.09048572490619566,
            0.023879516261208683,
            -0.049836811065060965,
            -0.13303128313049742,
            -0.12503942315412292,
            0.005085425237750907,
            0.04809163835702865
          ]
        }
      ],
      "gradients": [
        {
          "data": [
            0.4551594984953301
          ],
          "gradient": [
            0.2906190641402445
          ]
        }
      ],
      "weight_initializer": {
        "type": "GlorotUniformInitializer",
        "config": {
          "seed": 542693347
        }
      },
      "activation_function": "Sigmoid"
    }
  ],
  "output": {
    "data": [
      0.6118652483636852
    ],
    "gradient": [
      1.2237304967273703
    ]
  },
  "optimizer": {
    "type": "StochasticGradientDescent",
    "learning_rate": 0.01
  },
  "loss_function": "MeanSquaredError",
  "train_history": [
    [
      0.4467669496765458,
      0.5022867045607804
    ],
    [
      0.43059035268028806,
      0.4810688196862285
    ],
    [
      0.4133163531032104,
      0.45861991397109764
    ],
    [
      0.39516161224937607,
      0.43527725084286806
    ],
    [
      0.3764739764814701,
      0.41151182809107484
    ],
    [
      0.35771655706943656,
      0.387898687334056
    ],
    [
      0.339421235647011,
      0.3650531219052465
    ],
    [
      0.32211929875044903,
      0.3435472641812404
    ],
    [
      0.30626497149765586,
      0.323832207516371
    ],
    [
      0.2921739295871358,
      0.30618966324872077
    ],
    [
      0.27999527094187127,
      0.29072390453849356
    ],
    [
      0.2697213062794391,
      0.2773881579973878
    ],
    [
      0.26122466571157343,
      0.26602943857489736
    ],
    [
      0.2543055501243993,
      0.25643537149021517
    ],
    [
      0.24873459781868792,
      0.24837244115464752
    ],
    [
      0.24428398856087793,
      0.2416120080528048
    ],
    [
      0.24074586064966225,
      0.2359450893722477
    ],
    [
      0.23794061770580735,
      0.23118882619184875
    ],
    [
      0.23571859324466218,
      0.22718767721330135
    ],
    [
      0.23395803771154933,
      0.22381171863884125
    ],
    [
      0.23256147771352906,
      0.2209536390394602
    ],
    [
      0.23145166927467314,
      0.21852537134958017
    ],
    [
      0.2305677775041137,
      0.21645485931772213
    ],
    [
      0.22986205101975515,
      0.2146831819126762
    ],
    [
      0.22929705857737423,
      0.21316210514366618
    ],
    [
      0.22884345709852685,
      0.21185205199374463
    ],
    [
      0.2284782205339042,
      0.21072044615212898
    ],
    [
      0.22818324972425041,
      0.20974037390990272
    ],
    [
      0.227944288376071,
      0.20888950908653214
    ],
    [
      0.22775008069343342,
      0.2081492515527154
    ],
    [
      0.2275917177274573,
      0.20750403731252287
    ],
    [
      0.22746213016152292,
      0.20694078549138226
    ],
    [
      0.22735569433272268,
      0.20644845420214297
    ],
    [
      0.2272679256916376,
      0.20601768288662192
    ],
    [
      0.22719523977620693,
      0.2056405033543939
    ],
    [
      0.22713476536184457,
      0.2053101054678452
    ],
    [
      0.22708419799624907,
      0.20502064638983694
    ],
    [
      0.2270416848539367,
      0.20476709465464593
    ],
    [
      0.22700573393575177,
      0.20454510216658156
    ],
    [
      0.2269751422392319,
      0.2043508986772138
    ],
    [
      0.2269489387515573,
      0.20418120442602875
    ],
    [
      0.2269263390564628,
      0.20403315751828582
    ],
    [
      0.2269067090677756,
      0.2039042533114781
    ],
    [
      0.226889535956861,
      0.20379229363013807
    ],
    [
      0.2268744047685718,
      0.2036953440606264
    ],
    [
      0.22686097955027146,
      0.2036116979185297
    ],
    [
      0.22684898807394388,
      0.20353984575121153
    ],
    [
      0.2268382094296995,
      0.20347844945230692
    ],
    [
      0.22682846392339487,
      0.20342632023545074
    ],
    [
      0.2268196048316881,
      0.20338239985056783
    ]
  ]
}